<?xml version="1.0"?>
<opencv_storage>
<opencv_ml_svm>
  <format>3</format>
  <svmType>C_SVC</svmType>
  <kernel>
    <type>RBF</type>
    <gamma>7.8125000000000000e-03</gamma></kernel>
  <C>128.</C>
  <term_criteria><iterations>100</iterations></term_criteria>
  <var_count>6</var_count>
  <class_count>3</class_count>
  <class_labels type_id="opencv-matrix">
    <rows>3</rows>
    <cols>1</cols>
    <dt>i</dt>
    <data>
      1 2 3</data></class_labels>
  <sv_total>7</sv_total>
  <support_vectors>
    <_>
      5.55031776e-01 4.62498903e-01 -6.62124634e-01 -9.77979302e-01
      -9.40693140e-01 -6.61929369e-01</_>
    <_>
      2.39092350e-01 1.65814400e-01 -2.10807800e-01 -5.14146447e-01
      -7.34187603e-01 8.39085340e-01</_>
    <_>
      2.90671587e-01 1.88137054e-01 -2.60117531e-01 -4.25824940e-01
      -6.30015254e-01 6.40532970e-01</_>
    <_>
      -9.99999881e-01 9.99999762e-01 -3.05289268e-01 8.03824663e-01
      8.56399059e-01 -9.52001095e-01</_>
    <_>
      6.14924431e-02 8.80437136e-01 -7.79718399e-01 1. 9.74961758e-01
      -9.39160466e-01</_>
    <_>
      2.97520638e-01 9.76845026e-01 -1. 9.79342699e-01 9.88087654e-01
      -9.72496152e-01</_>
    <_>
      5.68513632e-01 -7.79180527e-01 4.89292622e-01 -1.06660724e-01
      -4.74254847e-01 9.69689608e-01</_></support_vectors>
  <decision_functions>
    <_>
      <sv_count>5</sv_count>
      <rho>-3.9959914442193933e-02</rho>
      <alpha>
        8.2225875629639980e+00 9.7911892247082886e+00
        -4.3171549489655598e+00 -1.0142247827090561e+01
        -3.5543740116161602e+00</alpha>
      <index>
        0 2 3 4 5</index></_>
    <_>
      <sv_count>2</sv_count>
      <rho>8.8817841970012523e-16</rho>
      <alpha>
        7.3965136271856267e+01 -7.3965136271856267e+01</alpha>
      <index>
        1 6</index></_>
    <_>
      <sv_count>3</sv_count>
      <rho>-1.9743257640821726e-02</rho>
      <alpha>
        2.2130187302874518e+00 9.3918623696417978e+00
        -1.1604881099929248e+01</alpha>
      <index>
        3 4 6</index></_></decision_functions></opencv_ml_svm>
</opencv_storage>
